{
    "num_layers": 3,
    "sizes": [
        784,
        30,
        10
    ],
    "biases": [
        [
            [
                0.15758571256970552
            ],
            [
                -0.7269137201474354
            ],
            [
                0.05934201458279905
            ],
            [
                -1.1467039938732166
            ],
            [
                0.7553113037076038
            ],
            [
                0.1108162897901457
            ],
            [
                -0.8826553010625712
            ],
            [
                -1.3367844951534564
            ],
            [
                2.11385998413173
            ],
            [
                2.313311140683431
            ],
            [
                -0.31999384593443575
            ],
            [
                -0.4085027167667188
            ],
            [
                -1.5785156430927534
            ],
            [
                0.26420557698878844
            ],
            [
                0.5879458046060919
            ],
            [
                -1.207655040932374
            ],
            [
                0.6366963746373447
            ],
            [
                -1.1334456748979205
            ],
            [
                0.45673020636138056
            ],
            [
                -0.9254513317700588
            ],
            [
                -0.8506620313348933
            ],
            [
                0.7687349503596369
            ],
            [
                0.0169122789320966
            ],
            [
                0.05931300456060451
            ],
            [
                -0.06976733476183955
            ],
            [
                -1.3128016044644555
            ],
            [
                -0.1514102028677356
            ],
            [
                1.6025921068350006
            ],
            [
                1.2588658890353477
            ],
            [
                3.024187038081539
            ]
        ],
        [
            [
                -3.3914697121219555
            ],
            [
                -3.0840606064235154
            ],
            [
                -0.5814279083395211
            ],
            [
                -1.0198342953318706
            ],
            [
                -0.02265039941771967
            ],
            [
                0.5356242106076572
            ],
            [
                -1.0271434724717423
            ],
            [
                -0.27279537864318076
            ],
            [
                -2.0109006395970352
            ],
            [
                -2.5292717676796723
            ]
        ]
    ],
    "weights": [
        [
            [
                -0.8199618449805268,
                -0.9007372137197013,
                -0.5094226928080896,
                -1.5562208664557529,
                0.7079717920732475,
                0.5582879580092331,
                0.5358500152356797,
                1.2352852381765087,
                -0.8778757440546513,
                -0.7619232021543584,
                1.1489354110068681,
                -0.39536607558116765,
                -0.1037871824049736,
                -1.560526615545737,
                -0.25517777057025537,
                -0.8215873153058241,
                1.1404889143738277,
                0.22677817955795543,
                -0.24405132914663538,
                -0.2323918436065316,
                -0.5086755257231486,
                -0.5432589146753454,
                0.5222835875958521,
                0.30300689359854127,
                0.15867751378099376,
                0.1762418592526793,
                -0.9457819796342756,
                0.4611808132475396,
                0.9418699987486715,
                -0.3064091606772791,
                1.222853757154424,
                -0.9304586089736328,
                0.040615258781487584,
                -0.23681181834737236,
                0.5340484528118749,
                -0.4695592584701034,
                0.7589916683106501,
                -0.7806647856431486,
                0.3858966965432142,
                -0.9713725714299405,
                0.14371077909869262,
                1.328972031148151,
                1.8806413150877577,
                -0.24905242986132614,
                -0.04070442856604709,
                -0.5222763898323012,
                0.6326138826175147,
                1.1201221021678203,
                0.17702693613997408,
                1.6978040297199293,
                0.39512681776360026,
                0.05052790452827424,
                0.289720360165813,
                0.26060630177125155,
                -0.28303628448867696,
                0.08206913361535856,
                0.8504949621387651,
                -0.21502771393863285,
                1.5113782534714155,
                -0.5604199977870358,
                -0.260919452780687,
                0.5064103400749097,
                -0.9061513485422666,
                0.11589408859643074,
                1.8576663388348114,
                -0.8789876116357341,
                0.08782646930432621,
                0.041805757791589064,
                -0.5865587553232385,
                0.019565212986502066,
                1.5968736591882766,
                0.05766808057012048,
                -0.20151308306425622,
                -0.4642490583129067,
                1.2405416339793502,
                0.12250913148645007,
                0.24541876268225346,
                -0.17595628405808433,
                -0.6801431626725409,
                1.424564603101771,
                0.9078408806364148,
                1.8205023331280947,
                0.24860130315668602,
                -0.7580062155818882,
                -1.188021626439733,
                -0.4264869781353982,
                0.5879168881895817,
                -0.4055422509074829,
                -2.5383311294071498,
                -1.226426722712288,
                1.0755677581400827,
                1.3349534348898948,
                1.5381442061673878,
                -0.04536103433719607,
                1.8147235327838251,
                0.05277444508704207,
                0.26864116262446347,
                -1.168945923666832,
                -0.04460572530747654,
                0.49007162987557024,
                -1.8972425979139156,
                0.6449425169411114,
                1.0331675900601314,
                1.136405983242526,
                1.355312129512969,
                0.3765046425025359,
                0.2237280616968635,
                -0.05152357350466932,
                -0.08515629040566862,
                -1.4204836473803082,
                0.7789350855301114,
                -0.6968234339964127,
                1.7396573082928861,
                -0.025822371090588395,
                -1.6370260019226126,
                0.747755394028519,
                0.5466973891854177,
                -0.711097893590392,
                -0.780913407027079,
                -0.7270434537338735,
                0.4621174969620879,
                -0.03028084742155933,
                0.2925245255996643,
                -0.3062016767575453,
                1.1019426018245435,
                0.5522148474504813,
                0.14067747724079563,
                -1.162756905243279,
                -0.03690788872480174,
                0.3864479223037653,
                -1.5779072775153513,
                0.7064771880112166,
                0.5768197685456322,
                0.8362966581915228,
                1.236739665459149,
                -0.41899162768206677,
                -0.8017203666771262,
                0.062434405934146606,
                0.5893260186286747,
                -0.36142833113355033,
                2.0294876309743723,
                -1.430991571943133,
                0.22208361582850486,
                -0.18455018551109775,
                -3.0111032626674907,
                0.5000481713848004,
                0.19330772118164016,
                0.6775929402651237,
                -0.7286263656427576,
                0.329183783825172,
                -1.1989346946014514,
                -1.568831709411288,
                -0.963869849325289,
                -1.1726098702090293,
                -1.6929415406143509,
                -0.02318419523548709,
                0.4733623563296039,
                1.1756823980872972,
                -2.284632428816318,
                -1.0224545561182492,
                0.224790117791886,
                0.2505894554482763,
                -1.7091920302375798,
                1.7870750742669719,
                2.2326499589807125,
                -2.187044557640647,
                0.7056313273395622,
                -1.04782971063111,
                -1.2298958614966768,
                0.2457698602755142,
                -0.17398086980725982,
                1.3273811799788502,
                -0.38817265192864914,
                -0.08246485942284937,
                1.05824838150943,
                0.8325615175703486,
                -1.255455019219082,
                -1.0787167351592475,
                -1.017627231082102,
                0.3616801578386976,
                -1.5839696075397929,
                0.9477146321512993,
                -1.2118539704798805,
                1.1168873346490837,
                -0.21243330231947805,
                0.5254955381002586,
                1.6525678109499224,
                -1.6275390629517759,
                -1.2440839038478004,
                0.08144635106497673,
                -1.929692404998721e-05,
                0.24653942680082433,
                -0.9206502530692777,
                0.7052303661059786,
                -0.04655967077814498,
                1.140901994717173,
                1.6811496255353278,
                0.9632457696351757,
                0.505157095194637,
                -0.8433520241858055,
                -0.28124513373428606,
                0.0673835153571094,
                0.08550983454423984,
                -0.28434844335264337,
                0.9530797784756657,
                -0.5597837538680642,
                -1.5592752065257194,
                -0.9639354035692378,
                -0.2115399338738027,
                -1.241171455004258,
                -1.059951429953778,
                1.3435045225133193,
                0.5194833088907644,
                -1.6447928941290109,
                0.527400753435981,
                0.10367335269244686,
                0.9307943506031731,
                -1.5347956394063753,
                -0.7373681747192721,
                0.581569506998062,
                -0.6872558738802449,
                -1.0375652012995291,
                0.4059722182582514,
                -0.896478227780674,
                -1.1678996122214034,
                -0.3180079415312731,
                2.6474447395855223,
                0.942481700804819,
                -0.8479436032445764,
                0.527601947329353,
                -0.7090320126754717,
                0.4493545903440992,
                0.009963968337281894,
                -1.8235654494803903,
                -0.22643196464685889,
                0.1477126319971631,
                0.05883681312830455,
                -0.06593589716511859,
                1.4555610325394812,
                -0.8795725226193779,
                -0.7826465951491239,
                -2.0832102109906145,
                -0.774258383198369,
                -1.6249621565807706,
                -0.2666083800376495,
                -1.04530549702461,
                0.33948547089952946,
                -0.525543234207374,
                0.033679149501476977,
                -0.7207727924639944,
                1.1339224056166264,
                -0.46092000715916326,
                0.16841963057176051,
                0.19573659574319532,
                -1.0176446329600708,
                1.4738086021590193,
                2.1982682984079958,
                0.10520304565170224,
                -1.2990985744115056,
                0.06513271410858118,
                0.47610475821943427,
                1.7980431561351338,
                0.536541710934843,
                1.166102781881674,
                -1.7323564771239617,
                0.7378388089241764,
                -0.8351528298639253,
                -0.2704402933391788,
                -0.40391027788424716,
                0.3679545655872736,
                -0.9525892283930232,
                -1.9503168980806909,
                -0.9054443037767634,
                -1.9154228570233052,
                -0.18807005009939062,
                -0.9753683258893198,
                0.06496661805799653,
                -0.9122798235409177,
                -1.1401060627537591,
                0.22475518507446463,
                0.15735839690534786,
                -1.0816857794267831,
                -0.34721792594311257,
                0.23818466289128423,
                -0.21488006670076912,
                -0.6752014105201928,
                -1.2992498583538932,
                0.18839168871105516,
                -3.1315506358462564,
                -0.6514317173871063,
                -0.6180686421069953,
                0.7466123730796701,
                -0.39180237990456673,
                0.6951431850394159,
                1.1659407238713086,
                0.5143462467409315,
                -0.5217107018671086,
                -0.8380610475954389,
                0.5460747012865865,
                -1.0486993932736406,
                -1.0940638558157934,
                -1.649478810956815,
                -1.6265545768178058,
                -1.6433929215135454,
                0.558445385098352,
                1.0193715344685574,
                -0.16823133176358837,
                -0.0478921304143656,
                0.3593742340003592,
                -1.48818353427158,
                1.5547728719595415,
                -0.07097948057820563,
                -0.07442117930895017,
                -0.9486634028696004,
                0.2600225523640371,
                -0.1775138591603789,
                0.6160226222421775,
                0.7590063993437508,
                1.872429977964356,
                -0.020100243885395684,
                0.542691962658838,
                -0.7227268794989515,
                0.1771227561586039,
                -2.6108010916012514,
                -0.04456410659925246,
                -2.2607938724914933,
                0.772809580434118,
                -1.4422514773506574,
                1.0637315095811701,
                0.7783742180537226,
                -1.2226863713727976,
                1.0827043931200293,
                -0.2656993450094654,
                0.5015586810086903,
                -0.6051505596257829,
                1.6419662858844035,
                -0.5326366883569293,
                -0.9661400894683477,
                0.627692641643954,
                1.1260303666861884,
                -1.0522589977883097,
                0.09971961989266069,
                -1.9044811664249766,
                -1.810484880785205,
                -0.23861368964125523,
                1.1228352974517393,
                -0.42655663403978455,
                -0.6334802354098668,
                0.1579718540199149,
                1.869491475982508,
                -0.5193143942433833,
                0.1811732826772912,
                -2.7809777595947556,
                -1.142594108026099,
                0.3263419549771974,
                -2.7301206935154587,
                -1.3288984883623551,
                -0.23628691012204017,
                -2.5053269327165326,
                0.14008850208929371,
                0.7968067089437613,
                -0.06134109978198196,
                0.1357285001577438,
                -0.4655376348601506,
                1.6807421879424138,
                -0.2684184264067918,
                -0.5307161984944073,
                -0.023692989180047263,
                0.7642618819246074,
                -1.0554733125928575,
                -0.16266693916045008,
                0.29731436484412094,
                -0.9617838068107303,
                -0.9627698909719239,
                0.26561232707178417,
                1.683795228422196,
                -0.676953221380013,
                0.35986392914858034,
                1.489069863991804,
                0.28472024387727396,
                -0.8100331128764434,
                1.0955676205736609,
                -0.5130542920761006,
                1.3862709842546093,
                0.6406672759211465,
                -0.20687862977936466,
                -0.414437989217541,
                0.07251172612498184,
                -2.1578990638530797,
                0.5819007278036727,
                -1.2704413828090215,
                0.4145902144121516,
                0.8536057691607428,
                0.6874290211070438,
                0.8791491878870383,
                0.025770495260561712,
                0.8921286421585498,
                -0.13421882661182977,
                0.4346591769187921,
                -0.3448377406262735,
                -1.188084627438158,
                0.5695458927996562,
                -0.24104175889699986,
                0.5178035279944218,
                -0.6288395488457419,
                0.6031015840021537,
                -0.9912180117242498,
                0.4438025287924137,
                -0.12623781653577534,
                -0.5514976962159215,
                0.06602150974836392,
                0.4485914184402939,
                -0.7687160787754128,
                1.1122688111843715,
                -0.0068776316639669694,
                -1.901228626957161,
                -0.4905145689720572,
                1.895531249503375,
                -0.031240244466994853,
                0.9648023643402749,
                0.4042915417893519,
                -1.1252670852338544,
                1.536448275504155,
                1.0624946076271407,
                0.5124727822330247,
                0.042233115064127434,
                -1.3766731733451665,
                -0.7885010256677485,
                -0.4667056821493266,
                1.1070068891736475,
                -0.7582615057020069,
                2.0768814182578827,
                1.143029951774919,
                -0.7100429800882115,
                -0.023351106630774013,
                0.6854423930227321,
                -0.7361534012281912,
                -0.6248341570866492,
                -0.3860943627229555,
                -0.08091226665835785,
                0.42977985189540446,
                0.23080169219421642,
                -1.8993289773577255,
                1.1756915461098554,
                2.624092104853736,
                -0.28912849197419366,
                -0.5674427661933684,
                1.4109725938885527,
                -0.19315330875026718,
                0.12837629981593282,
                0.32676188672363277,
                -1.1059721740732373,
                -0.31378946467720664,
                1.9622346513924902,
                -1.6863817200910096,
                -1.0773064173577769,
                0.950238074786621,
                1.3684836201560215,
                2.2740130220302617,
                1.4520841482088305,
                -0.3626915128478707,
                -0.3757560495911959,
                -0.15120424629720247,
                -0.4726870231918627,
                -0.028152551583733493,
                0.7799844551175509,
                0.5440005259298245,
                -0.8470931306362887,
                0.5098624728150559,
                0.29744631929212717,
                -0.5384864799892886,
                -2.1353045537451236,
                -0.5219287334709712,
                -1.2229989310374523,
                -0.7652122219110773,
                -0.20968277470319696,
                0.24838027203311996,
                -0.7491228970573884,
                -0.2467181651830139,
                -1.3717407868433447,
                -1.1441237963539972,
                0.9361563968910046,
                -0.3951040517919407,
                1.0882338943284688,
                0.36413716596043405,
                -0.851761964684863,
                -0.4192858022936478,
                2.436068984777259,
                0.30412244993599763,
                2.8227628100011986,
                -0.8831827437001859,
                -0.6450350516204618,
                -1.6860662808376143,
                -0.0902083929090612,
                -1.0812537670389841,
                1.0575715547499118,
                -0.14243122560489252,
                -0.4092587180993778,
                1.882137935645913,
                -0.8466223534968241,
                0.1648247401532657,
                0.07354463519542831,
                0.06450898615839322,
                0.07011370136063656,
                -0.1623997761289078,
                -0.3419858098216028,
                -1.2863798324632352,
                0.20665962957251643,
                -1.0393376256509748,
                1.7299548640247164,
                0.622227027384278,
                0.676912107059569,
                -1.3995777823334992,
                -0.4262830360745348,
                -0.840654218115932,
                -0.7795886855674174,
                -0.7630639359969936,
                -0.7180824465719562,
                -0.4980197828153489,
                -0.6375297824646159,
                0.7883703675539853,
                -0.7030455190994083,
                0.4193430136252974,
                -0.06276850353781711,
                -1.763063364357586,
                -1.0075562266016358,
                0.5229581745043094,
                0.3443114943230833,
                0.6022033765094926,
                1.1225563837000694,
                0.8334424395436049,
                -0.12457044297977257,
                -1.3502224044713846,
                0.12877146374728415,
                2.168716049450598,
                -0.7831954932455811,
                -0.4236482146661874,
                3.335431043751045,
                0.7339470076406812,
                -1.0459856454510104,
                1.1320043665768749,
                0.27855668177853515,
                1.4503327721304098,
                0.5303772317982783,
                -0.35985611075049406,
                -1.0600899523835605,
                0.6786044970325837,
                1.266360079964029,
                -2.102951096612658,
                -0.3120826708813378,
                1.387361538728604,
                0.7295086943756154,
                0.946803194315813,
                -0.7906978009840966,
                -1.680967317842633,
                -0.7001521110299677,
                -0.670984098986176,
                -0.09362937321486582,
                0.6919872001265769,
                0.8565365917547482,
                0.7110769684538293,
                -0.2974749136925913,
                1.1691928499636308,
                1.602872911846763,
                -0.5743641535457922,
                -1.4401394707038302,
                -1.0467984724893764,
                -0.47118044055587877,
                -0.8169974942717078,
                0.5581720536683904,
                0.5486341003804927,
                0.13149802073587508,
                0.3855983193660851,
                1.1035242404817511,
                -0.2885612334925758,
                0.12469994808735749,
                0.724953057493149,
                0.7302095203245413,
                1.5622194541077885,
                -0.12269469337525538,
                2.0402921745875657,
                -1.391777028150733,
                -1.0193800300400613,
                -0.8547653117021449,
                -1.8210055408299883,
                -1.697705485829902,
                1.6637252407718308,
                -0.7063365391235239,
                0.7223951501070895,
                0.04238705200241992,
                -0.7207241746946044,
                -0.35196463832360786,
                0.4513406264856975,
                -0.5862260983795551,
                1.7201090957135372,
                -1.3327065011469128,
                0.5673473191652959,
                -0.4120064558945343,
                -1.4419673130671047,
                0.5355221039726946,
                -1.3070465293079263,
                0.33022861214984206,
                -0.7601317527636845,
                0.245350859504977,
                0.06484976032076378,
                0.26197689357678416,
                -0.0374080901276512,
                0.11183669404601825,
                0.036036500163441294,
                -0.9501617474309375,
                -0.6048025996038588,
                0.0866253816381309,
                0.6983594241388373,
                0.37230590509528527,
                -1.2371999342539333,
                -1.0969780976352737,
                0.5979480245852417,
                -0.8726001243378128,
                0.33458941979312734,
                -1.102134004634129,
                -1.0933020395667787,
                -0.6679194434455724,
                1.7388802523643907,
                -1.6142670300476525,
                -1.2006956741427584,
                -1.0617230592684892,
                0.836622017981531,
                -1.430590573692006,
                -0.4954752657249504,
                0.3846981752377255,
                0.2403995745642991,
                -1.4788959244303959,
                -1.105771231278443,
                -1.9911617395267838,
                -0.7756133819856807,
                -1.0156923485812224,
                1.061248130460455,
                0.5588014080766173,
                -1.45850769292355,
                0.8969557872309479,
                -1.382012780870302,
                -1.460192038648317,
                1.1457602202928823,
                -3.036797808543332,
                -2.1014296030497115,
                -0.12755924563875748,
                -0.5026889021261772,
                1.6697933105359994,
                1.4094847120655798,
                0.46520344206634257,
                -0.020508333602359492,
                1.2409658438095035,
                -0.21379914340623496,
                -0.888729104958389,
                -0.25413345459311026,
                1.2309825386138495,
                -1.2013562998043883,
                -0.4835659540704988,
                -0.5986595083083068,
                -0.6113890167077302,
                -0.590665064751111,
                -0.05745829378420604,
                -0.7611997566157385,
                0.45874586523279515,
                -0.459373011660852,
                -0.07684276155823096,
                -0.12549767448285332,
                0.5297716573720564,
                -0.7446944713318961,
                -0.4225789797311051,
                0.6743806659024149,
                0.31660508440807106,
                0.30739152983997003,
                -3.0120344550351543,
                -1.2328829462231294,
                1.7734235804527718,
                0.5997029274803433,
                -0.1274388999061279,
                -0.797691166416874,
                -1.2507561198564037,
                -0.5006633158348955,
                -1.3603442846496792,
                0.701622144982788,
                0.2837545841450546,
                -1.6504935666707083,
                -0.20231388209172907,
                -1.4029982909760643,
                -0.06191132180361792,
                -1.272969718628821,
                2.139211908385715,
                0.02829086400325821,
                -0.028831188174107843,
                0.17799738893380965,
                0.19245123486675977,
                0.15458023768583365,
                0.4592704251753791,
                -0.14366013622783502,
                1.9741632033667895,
                -0.2741217648099651,
                -1.0925379082112334,
                -0.13084706795807002,
                1.0973755124123066,
                0.6467699606863241,
                0.00460670809991797,
                -0.9220558765071238,
                -1.6132987881844136,
                0.43728871237246175,
                -0.22143187645772414,
                0.16343175862797846,
                2.031841069248321,
                1.9674786292841058,
                -0.29392500965670576,
                0.48634172799380043,
                1.0777402967967815,
                -0.7992744581263189,
                -0.723801238228124,
                -0.743319862798865,
                -0.6495052305200194,
                -1.0399538001900015,
                -1.9858497302551987,
                -1.0885514502633011,
                -1.1574751526050395,
                -0.49209888643117883,
                1.2709761829851365,
                -0.550088372273789,
                -0.25072697029802915,
                0.5579746599351681,
                -1.1083723106595644,
                -0.3361357027745364,
                0.6900193354901873,
                0.19246133743609953,
                1.611589032914313,
                -0.3320833720002046,
                1.5261279656358755,
                0.6639172969983484,
                1.543806089522691,
                -0.7070782244461822,
                0.14455989403208325,
                -0.6107922545268596,
                0.09402058886344611,
                -0.014184894164533033,
                1.3328136070346357,
                -0.13517410684189438,
                -0.7057086409461147,
                0.5994180945386767,
                0.06550062158510817,
                1.3100309288450611,
                -1.354259103626583,
                0.11640023644057357,
                1.2200188991965994,
                1.273464240452893,
                0.7919811176741216,
                0.8015127554328587,
                0.8921205103385819,
                -0.564695139002593,
                -0.29601325298837294,
                2.3114317258810546,
                -2.0178669516417984,
                -0.15700023159755877,
                0.4278026670241372,
                -0.18899180119433104,
                0.08144538030895537,
                0.4193922511283834,
                -0.5488112566385284,
                1.2603552642014015,
                0.5678712686073815,
                1.7028692273387682,
                -0.7427010083156258,
                -1.2718191339106928,
                0.7402531866274716,
                0.22028903975959938,
                -0.5272699740712741,
                1.2535251467810724,
                0.020205481642281798,
                2.3352180528165354,
                0.3970627094248396,
                -0.22558411313007737,
                -1.4039925050029196,
                -1.1597197368492158,
                -0.12559673071654825,
                -1.012793940547382,
                -1.3006156897042638,
                -0.061229624436677205,
                -0.6190185341455393
            ],
            [
                0.8179025629803144,
                -1.2590993071263157,
                0.36331535149596716,
                1.4905236404371522,
                0.23567136492823784,
                -1.232192809967803,
                1.7779285094297679,
                0.28563256754896876,
                -0.36328876671697435,
                0.012857517381273317,
                -1.7721427519219204,
                -0.17693578043159608,
                0.28684381452497615,
                0.007697297913411547,
                0.25071316683357414,
                -0.3165772799775989,
                -0.41848937823304994,
                -0.801549922722305,
                -2.0779394699128897,
                -1.1078226969315108,
                0.5304863950974249,
                -1.4597532395769528,
                1.5770974752865807,
                0.20146396259383073,
                0.08913232289720419,
                -0.13683353131060888,
                -0.4820473448805123,
                0.4101186377614315,
                2.162385635051609,
                1.2276178862562126,
                0.745259916418352,
                -0.12595897042332063,
                -0.6368537101356713,
                -0.18099306406452736,
                1.0690093925475,
                0.7528984324046063,
                -1.046606603656537,
                0.45919758654979936,
                -1.5142449094252384,
                -1.2229834153299592,
                -0.363972244709702,
                0.031009192978937183,
                1.0548987042862579,
                -0.04666340836858341,
                0.5851349692811413,
                0.2719118289415902,
                1.7591016720322112,
                0.8705817614219905,
                -0.9869756047901818,
                -0.47789437777094024,
                0.16846095134735262,
                -0.35374041053890676,
                0.3845002824938246,
                0.5009796748373443,
                0.6988885471737789,
                1.3381602372132368,
                -0.6258377888867811,
                -1.1505224199086068,
                0.10448371287268403,
                -2.4895537824551184,
                -0.3019077801745114,
                -1.1820693766013484,
                0.9767052654659428,
                1.4241318107981504,
                0.5270122924839524,
                0.08118051053213637,
                -0.7852414209016351,
                -0.9134470068555667,
                -0.34215564471811416,
                0.931159132807762,
                -1.2771957626113009,
                1.5012311699619065,
                1.0319461265993326,
                1.305066650824551,
                0.8569598751570566,
                2.1173327025805393,
                1.3626947055627006,
                0.7074568153625981,
                1.1109288401072595,
                1.403791568620048,
                -1.3745007421386088,
                -0.48464837960620044,
                0.6980106345573216,
                0.027173070051133813,
                0.6585916218177926,
                -0.5724713196805644,
                0.5611983360899957,
                0.7547998585676476,
                -0.3585127730554136,
                0.6687667608958948,
                -1.1097440289633338,
                -0.3811546008565371,
                0.3971237073455202,
                -2.1719827374695586,
                3.0773120700235275,
                -0.3135998064701893,
                -1.2091537017820497,
                0.5041209791666622,
                0.8320182606343656,
                -0.4955769374879807,
                -1.6839843768294342,
                -1.5860793291759596,
                0.2011483712658847,
                -1.564214715645464,
                -0.27853265154692264,
                0.38249276337546084,
                2.4223650598806428,
                1.0831191808525031,
                -0.8202109528698609,
                -1.5599169117105363,
                0.5111445081768121,
                0.9779583909209274,
                1.6184145905933507,
                1.1645344354828178,
                0.2216784881821552,
                1.37243100886555,
                -0.4171921421005156,
                -0.9041175876423198,
                2.122972989936282,
                -0.6657034460313679,
                0.2722375878403546,
                -1.3550593853184336,
                -1.88823235789135,
                -0.39003760017837785,
                0.7055009022048502,
                0.06573484380682186,
                1.6231781306711404,
                0.782591394739389,
                -0.8959191147134151,
                -0.700348484962099,
                0.5817098684928635,
                0.831550540690333,
                0.1335952925749752,
                1.8144791501834763,
                -1.8772060723558295,
                0.2276165594095797,
                1.2908300939378303,
                1.0944473433985134,
                1.561676122274518,
                -0.12493144084293065,
                1.4120900552038647,
                0.4978976058161425,
                -1.3797090427504406,
                0.7047394449566028,
                0.4827728541553654,
                1.0948906018401334,
                -2.0616531994338305,
                0.32077741790959685,
                0.6987173849355123,
                -0.1577153158835902,
                -0.6302136438524062,
                -0.09817053372916888,
                1.1541479786379236,
                0.7677797734156441,
                0.15973992678397522,
                -0.5801908749407237,
                -0.40075121559572174,
                0.21476667296520602,
                0.0683460953643688,
                1.2857007198970165,
                -0.07787245565685792,
                0.00020157337720123761,
                0.05891463139561902,
                1.5275687081331601,
                0.04653407937885318,
                0.6821801342307294,
                1.9069582442016952,
                -2.46902476749222,
                1.32500835239756,
                -0.7328159306827249,
                0.798904644069804,
                -0.2776770227669425,
                0.779683549964992,
                0.16703132677256258,
                -0.45721388250376954,
                0.032877358964331575,
                -0.7611980737086381,
                0.09541294367431556,
                -0.6885207957548962,
                -1.228351883963406,
                0.34558644554129325,
                0.44566143615535747,
                1.1124512337580965,
                -0.15797981972898273,
                -0.14941105048072698,
                -0.9812444985504575,
                -1.981871514803214,
                -0.6926383917542595,
                0.5345571245988583,
                0.5470449594619398,
                -0.27590317884711907,
                -2.1194679470495372,
                0.35937991057124125,
                0.1363038415288859,
                -0.42667405231857947,
                0.5016420732950045,
                1.037945720020217,
                0.5545525974626532,
                0.7659188778231005,
                -0.40446847178426765,
                -1.0404951517238916,
                -0.04939037812905363,
                -0.8488032274411427,
                -0.12260140890398458,
                -1.164661187911967,
                -0.39755239989237434,
                0.082460176822697,
                0.9984669861259706,
                -0.09373406135946331,
                -0.10856166704153353,
                0.3951158127147919,
                0.4477708111997892,
                1.3325989363477613,
                -1.0123974904586615,
                0.3438382032816402,
                1.0560365225747237,
                -0.2617184951762347,
                0.5530836141660485,
                -0.4392284410938528,
                -2.2629621923682164,
                -2.013656902371006,
                1.4458755307114832,
                0.8312446285021488,
                0.04880465468140715,
                2.1563818871238847,
                1.4776496944010262,
                -0.26045077408034656,
                0.14472641150967117,
                0.23211383777634845,
                -0.2849612846790146,
                -0.8903646541309169,
                0.552273511205106,
                -0.47653058704772905,
                1.389906874371829,
                -0.5914763081704367,
                0.32456572311319853,
                -0.1792556996486648,
                1.4254328833547014,
                0.17028176478346588,
                -0.46019628697951104,
                -0.9615976992470147,
                0.9899228081257649,
                1.0991671435067447,
                -1.3465326076758881,
                -2.0083068785005462,
                -0.5462999368104668,
                -1.292700891198633,
                0.34744052044353807,
                -1.3247991700929422,
                -1.375679272113365,
                0.18699205024780635,
                0.13779904263409895,
                1.2312559927532698,
                1.2017617398246274,
                1.9224595366196489,
                -1.0244503252650978,
                0.05467561039667501,
                -0.7181905900757445,
                -1.0216317542367517,
                -1.2116332178502587,
                -0.9050462563027135,
                -0.1692562865722958,
                0.8425715413252237,
                1.0511106032692337,
                1.162264804148885,
                1.5605795943468042,
                -0.6797023047630959,
                1.4258559466738778,
                1.141247509192386,
                0.4429027934238841,
                0.6896536607348774,
                1.9225546726509588,
                0.045854957226492354,
                1.314439664967902,
                -1.9729171862067638,
                -0.21424263936945762,
                1.5829943958654633,
                -1.6748501746799334,
                -1.1491416518623467,
                -1.9768133536037509,
                -0.5078257399161492,
                0.28703540687987183,
                1.0731900014913056,
                -0.12487070619058704,
                0.18576572675128925,
                -0.9813694554257055,
                1.3908682692962848,
                0.7212589717385332,
                1.2299710730431517,
                1.6759574165584308,
                -0.8971122578048195,
                0.505169894614999,
                0.27896382426514305,
                0.3332402720266844,
                -0.3117848517707795,
                0.09881329291034396,
                -0.14405678205062114,
                -0.6782607932264867,
                -0.5755607297894815,
                0.4069352862625574,
                -0.3050387932940514,
                0.9953342991013867,
                1.2774412778885076,
                -1.1258946530559961,
                0.532813708095285,
                -1.9800225211091327,
                -0.8967819323948523,
                1.1519696159140878,
                0.7685808321899389,
                0.900194229422094,
                -0.7444687965015501,
                0.3272550687803101,
                -1.9790407747079226,
                1.1346082397823343,
                0.01973854255707445,
                0.2518184305833532,
                -1.221493400270683,
                -0.10466473931264764,
                0.6731382154121422,
                1.3592959324435547,
                -0.09548074133304979,
                -1.0024014462320245,
                0.3205597846034748,
                -0.4981565423017828,
                -0.6980795012165927,
                0.5059900864935327,
                -0.08700660224420285,
                0.7684134567807793,
                0.3208538534127534,
                0.31604518287201067,
                0.3166991323563355,
                0.2662024221487053,
                0.15939882938624286,
                -0.5438096481067098,
                -0.9534701295747661,
                -0.7720390162394397,
                0.5746912509022606,
                0.8944739942384262,
                1.5430643810532034,
                1.3075159480108147,
                0.1218006034341124,
                2.107359609615241,
                0.29912187207115526,
                0.732933460888449,
                -0.16402719723021325,
                1.4185894070209344,
                -0.27749329044460547,
                -1.0188605834573143,
                0.6507614045210495,
                -1.114850316375867,
                -1.5267310175650157,
                -0.5931784219991362,
                -0.46520245437709257,
                0.3875608882240876,
                0.54012372175192,
                1.4252843664920165,
                0.9028370879218397,
                1.2505683932327312,
                2.422157782181162,
                0.2735123085364907,
                -0.10149811240884238,
                -0.5432319958464451,
                1.2190108288163581,
                -0.2200379051258593,
                -1.1803288742044868,
                -0.704279690664798,
                1.4040340656752435,
                -0.32739878205065825,
                -1.1638867221539273,
                1.2685627820911083,
                1.2466573331755155,
                -0.165407289644629,
                0.005643403862374562,
                0.8257071393965426,
                0.4045600278600005,
                -0.9501768392989012,
                -0.809061230081598,
                0.03924857953535853,
                0.09827603217564741,
                0.7834876429448214,
                0.14459057518245402,
                -0.5842699811945492,
                -0.06448128800017644,
                -0.5557262614902829,
                -0.7399569531495742,
                1.8491193322826656,
                2.176674179286429,
                1.1500764015804328,
                -0.821663931234145,
                0.2954143904522519,
                0.16314910415603984,
                0.2270897023881494,
                -0.5752296735486102,
                -1.3185666529652127,
                2.051914293366736,
                1.7531436895789918,
                -0.9620902975019976,
                -0.3769834723564403,
                -0.44623107328531936,
                -0.3328872406416463,
                -0.5470075683914013,
                -0.7582565641734226,
                -1.43518449194721,
                -0.48945345155724,
                -0.683471559148531,
                -2.0528209069264496,
                0.8939036592097185,
                -0.2818245437716494,
                0.32198844722904224,
                -0.9607818648222433,
                -1.6331496879695122,
                -0.1825911230591724,
                -0.9453302392279408,
                -0.43903674019143724,
                -0.07996763391736024,
                0.9606762485414564,
                -2.181122036148093,
                -2.1834948196466275,
                -0.4802462174918041,
                0.49016745714824944,
                0.8824467504833018,
                -0.8165479248274023,
                -1.7034602152330853,
                1.8088676279870777,
                -0.21694130235315776,
                1.2078705420623532,
                1.4300763446461247,
                0.5869184956872727,
                0.5734868645493207,
                0.4889018219500618,
                -0.015593818405799455,
                0.5417196699379335,
                -0.8000986640619503,
                0.014236954575475674,
                0.17617464999904095,
                -1.737770696879184,
                0.37339461313320754,
                -0.7947871028047918,
                -0.14152259391138788,
                -1.8203725487496851,
                -0.13297365451717663,
                -0.5237836469639258,
                -0.3807757253284536,
                2.5310124352978667,
                0.08078830441934452,
                -0.35445631565635605,
                1.3357224305072943,
                1.1261266080307601,
                0.34979940211282357,
                -1.168716803689647,
                2.020659424981958,
                0.26068396097116386,
                -0.5615278924085949,
                1.1493938913017248,
                -1.6212953506465155,
                -0.9668640979273595,
                -0.25435340263135436,
                0.4030188605771114,
                0.7318506523128132,
                0.39923947900270534,
                0.4275193855997718,
                -0.754995663548211,
                -1.7693657515636196,
                0.13732910335822107,
                -0.2518443173244711,
                -0.560519648009066,
                0.6566599175399553,
                -0.4069978376517551,
                -1.1129606248161967,
                -1.2004369396280945,
                0.008954176180484693,
                0.3542694715216023,
                -0.6034373930456504,
                0.08356518193885924,
                -1.4931525700244082,
                -0.0342231176002526,
                1.2972057842187996,
                -0.5255221793676274,
                -1.2366855487468436,
                1.5705015694351576,
                0.08896801545967468,
                -1.1302790450342917,
                0.0435232003628234,
                2.802081873012892,
                1.437173962381367,
                1.9018696417065915,
                2.6362727974692532,
                1.0336423453293433,
                2.204076624162609,
                1.7577289600304513,
                1.2064942966198962,
                1.1680394660392688,
                1.5108046065753045,
                0.15170260629710094,
                -0.1395142759630427,
                -1.6234789681129256,
                0.5312693456600761,
                -0.6363077027888239,
                0.21142239664097556,
                0.5747198848005314,
                -1.169626651557374,
                1.0220308194608994,
                1.275856110322085,
                -1.2223149070371573,
                -0.1805483779301335,
                -0.2627513778719834,
                1.2734477385204583,
                -1.7209950928237152,
                -0.45995263795913827,
                1.2598786622542246,
                -1.5188145733718401,
                -0.48872864490230566,
                0.7238342863659626,
                1.9632029892692229,
                2.190911563414922,
                2.0655913949299283,
                2.343841350045134,
                1.8949726149808825,
                0.2503533552597287,
                0.14696012370458322,
                -1.6104058570315656,
                -1.0879847195549481,
                0.4895234844758419,
                1.4805375568538612,
                -0.2531085247239612,
                -1.0120492917789907,
                -0.7778764242632017,
                -1.141076658804883,
                1.223246467001639,
                -0.6342813755288366,
                0.25361506237962017,
                -1.1685795638674472,
                -0.4477845282508033,
                0.37909325661392834,
                0.8976711458194643,
                -0.8681563357343247,
                0.2650995199713787,
                0.1825636793643306,
                -0.7187121250770044,
                0.485930633451625,
                0.6471202665399658,
                2.1962262687063037,
                2.0972945685902995,
                0.9754292149178807,
                1.6352856671361493,
                -0.39114748659693493,
                1.5417888288597388,
                -0.1141751525476204,
                0.288863929016264,
                -1.8088994465130106,
                -0.4523312777011029,
                -0.27501107720477747,
                -0.8613638010578846,
                -0.3292513952512128,
                1.2630443283552988,
                -2.2249913383990725,
                -1.751472241042631,
                0.39515457804172316,
                1.2815952394043149,
                0.713959707226074,
                -0.01868464755998815,
                -1.3206299902791132,
                0.5168590136287143,
                -2.2963094594933966,
                0.09404459620094695,
                -1.1513894398533435,
                0.9061552454395458,
                -0.6381622289927464,
                -0.6191364580095592,
                -0.8964823988162055,
                -1.830974275617322,
                1.5722620957156002,
                0.6073089775744323,
                -0.03979780576899565,
                -1.0439443097782448,
                -0.5922261672664552,
                -0.47982632619777454,
                0.513941706056834,
                -0.5294006554377658,
                -2.299665564214205,
                -0.45057503818172323,
                -0.643474755909423,
                -0.7914881995041892,
                0.664772443883077,
                -1.0029923865160568,
                0.2054812674830791,
                0.6074851658450792,
                1.1275897168027695,
                -0.3955836471236225,
                -0.5447821957828018,
                -1.04829626125025,
                -0.5524281334104325,
                -0.6308488640253238,
                -0.6216220394908121,
                0.019301978221069167,
                0.30460925370598446,
                -1.4234796480597236,
                -1.173379096466403,
                0.6362028359037487,
                -1.5293560333391316,
                0.1491773476214013,
                0.8498429070060735,
                0.4438177336652369,
                -2.096801178239929,
                -1.230194359621848,
                0.9965891832081825,
                -0.2892352527214815,
                -0.9132960898933369,
                1.2361105074628236,
                -1.6536139789459143,
                -0.9398108645657245,
                0.3582637117273299,
                0.43028022161111623,
                0.1922846135731403,
                -0.4180233072597273,
                0.6975144338486438,
                -1.0727809743437582,
                0.7774614721421658,
                -0.11751789959662891,
                -0.3594834964221518,
                1.170224709216346,
                -0.02234281253997844,
                -0.16372715558516412,
                0.6129802394791936,
                -0.17508302613904375,
                -0.2411780070941087,
                -0.06415975203402151,
                -0.41575260642991013,
                0.17078646555845492,
                1.1348513984554938,
                -0.6026493677032336,
                -0.2271891102138757,
                -1.05436588229223,
                -1.2143240631228696,
                0.0366075917525675,
                0.1508099454660817,
                0.022827341366949014,
                0.6557875429406288,
                0.8723957703298181,
                -1.4512954564745977,
                0.504866418896604,
                -0.26580270345128043,
                1.3087680362979062,
                -1.7388596693221707,
                -0.5738714433243434,
                -0.04047009387897255,
                -1.2110205306809918,
                -0.01832541101951818,
                0.08337305258155785,
                -0.35649920558806436,
                -0.4700502883155434,
                -0.13343696025757068,
                0.23154387917820074,
                -0.6148277355204821,
                -0.025514696833842963,
                0.24579648268589316,
                0.04612100444084077,
                -0.0427385260404165,
                0.6367181733233253,
                -0.5144606120341753,
                -1.3852798538483155,
                1.0748468333938959,
                -0.1861009830418048,
                -1.3355308219597635,
                0.24434081976475117,
                -0.33585019475464495,
                -1.0073761736656357,
                -0.8657025934946024,
                0.7451282327738076,
                -0.689957872765754,
                -1.7075200590508959,
                -0.303165350966698,
                -0.16747380139968995,
                -0.5290346859680164,
                -1.2678942146484318,
                0.05552523348213605,
                -1.1181736952040036,
                0.07067730076577587,
                -1.2536474923132672,
                -2.393513930823596,
                0.030441454900768706,
                -0.5396733729595358,
                0.008718189078942288,
                1.2877121407491843,
                -0.011545851738093785,
                1.6560088329830809,
                -0.09070791714700892,
                0.5348347207823064,
                1.425248171762905,
                1.7949357003557347,
                -0.08866082622312596,
                1.62421568101415,
                0.6147491298456027,
                -1.357119977631603,
                -0.3240118576196753,
                -0.5302586101815876,
                0.3472207853852397,
                -0.5340221875359842,
                -1.9837918800163195,
                0.3741640145375802,
                0.8256397179463241,
                -1.1647353514400849,
                1.304498438123277,
                -1.7590239070608387,
                -0.3461868447794416,
                -0.09837863855538077,
                1.6432043418513216,
                0.3250989674445459,
                -0.38607908544861386,
                0.06635120488774626,
                -0.2949214303899467,
                -0.742925676327738,
                -0.150622058777312,
                -1.2281220815850848,
                1.1120874884873733,
                0.7036161376326194,
                0.21526852843533262,
                0.04844778815602905,
                -1.1190691269646862,
                0.595777021721572,
                -0.07828034982771498,
                1.7878088879430203,
                -0.3271051936463359,
                0.11979135895419238,
                -0.18986864775596177,
                1.1287880574557247,
                -1.9790590879754686,
                -0.21066665746244984,
                0.3456906490196293,
                1.9360766535206069,
                -1.3283300923230623,
                -2.5307377322981903,
                1.13662372143734,
                1.683636479844143,
                0.14424958214591438,
                -1.2184449557966732,
                0.1379496772214375,
                1.711875947598707,
                -0.6921245478738923,
                1.5591831347575513,
                -0.5743724762913496,
                0.5372200825482326,
                -1.2956993645605221,
                1.8049755713655413,
                1.3652890882179636,
                0.567850351902056,
                0.12939387837153793,
                -0.9867983473478718,
                -0.809319381131795,
                -0.6467293653828677,
                1.4187151587907285,
                -1.2034225387835054,
                -0.6468749404075038,
                -0.9067832858370424,
                -0.7463200334093267,
                0.8897670695934532,
                -1.1283046272941752,
                0.4223903843380365,
                1.05692915663782,
                0.393199555112846,
                0.09834273108893236,
                -0.3006806407414912,
                -0.6406286098249518,
                -0.31892191234294004,
                0.7271751527406857,
                0.991862596699125,
                -0.8818966769015613,
                -0.8407019717466608,
                0.3993142282119226,
                -0.1293780595780895,
                1.1978320515736005,
                0.16649666809016472,
                0.014503389722093881,
                0.7474076082069153,
                -1.2236319396661046,
                0.5328543358950384,
                -2.4099078015245525,
                -0.33743057307917207,
                -0.6074801482658282,
                0.020695726006684647,
                0.40500576942934513,
                -0.4925419455446228,
                -1.0532144533773589,
                0.5906573314014414
            ],
            [
                -0.8728277916384304,
                1.179488864517283,
                -1.0251788837960194,
                0.7151914554704195,
                -1.4738529712603214,
                -0.12144496716112908,
                0.16031194126826362,
                1.0730558759011406,
                -0.24117172635086367,
                0.5226937629444248,
                -0.1297770572070434,
                -0.5380624896352129,
                -0.3240381671675818,
                -0.81892062344383,
                -0.548516118160521,
                0.1774643717285361,
                -0.7695640209096835,
                -0.7638940022124224,
                -3.06954246489678,
                0.7002835920356808,
                -0.45978752477521867,
                -0.4155821541058751,
                0.32929723586541765,
                0.5161722372094601,
                -0.28200219129368187,
                -1.9496439657089475,
                1.8421653001872995,
                -0.7674355422485477,
                -0.1960444427515979,
                0.32665286467360133,
                1.1094152067823442,
                -1.2504500728648689,
                1.6664965037202375,
                -0.9192809199334097,
                0.5247833992067155,
                0.4784903353104712,
                0.8705861296556493,
                -1.9172627330388974,
                -0.6560051394946738,
                -0.01897556604648095,
                0.45597148690969497,
                0.04297954218469693,
                0.0791957054602977,
                -1.201303831064854,
                -0.18287486487505045,
                -0.25789759835550713,
                -0.46750693132100085,
                -0.49623836341376437,
                -0.5729505250685513,
                1.052506416340976,
                -0.18860047771936203,
                0.766222172430162,
                -0.6834482537011791,
                -3.3672403581994534,
                0.22783019703316645,
                -0.7956197162500481,
                -0.5047496599685632,
                -1.2935698378246865,
                -1.1141678908785553,
                1.3050201300965139,
                -1.4119623893770137,
                -0.7258554252540994,
                -0.5565697498343747,
                -1.2833852504754826,
                -0.18791042955192305,
                -1.4568585373228404,
                -1.2513421889476297,
                -1.57893410982154,
                -1.2307946811505268,
                -0.20640797636050418,
                -1.1019867043283154,
                -1.51447585373011,
                -0.08997700700553342,
                0.9162426946118377,
                -1.1314714804906685,
                1.8998743307918546,
                -0.7998973560555607,
                0.6417429097289609,
                1.8147521507220965,
                -1.7746277495907439,
                -0.24828980712575893,
                -0.15763458697842178,
                -0.5111932329911052,
                0.6930312869091947,
                -0.35101691646110594,
                0.269501734276953,
                0.2522527194540871,
                -0.7282134576493767,
                1.280249949917264,
                0.16727047494934122,
                -0.1414212347998341,
                0.7036802653208049,
                1.5581087030557257,
                -1.0623844472542134,
                -0.8298121363605151,
                1.8888451042759393,
                -1.3072997192543596,
                -0.611858748526384,
                0.28035425941337966,
                1.4206130452026364,
                1.2414140911297513,
                -0.12053228210355013,
                -1.2655706953269403,
                0.6289170427913016,
                -0.6870181512774864,
                0.04139013618977083,
                -0.15971493069099774,
                0.3407763449134152,
                0.5120165800911204,
                0.09633369359720959,
                1.0622351840395894,
                -0.7341473583702306,
                0.5030236508968142,
                0.4820774310581904,
                -0.24426735878803302,
                0.20497266095635194,
                -0.4597040954416527,
                -1.51925180335151,
                -0.35668558739726236,
                0.47878929029188505,
                -1.565507863589582,
                1.7738338237832136,
                -0.1851990710882113,
                0.7188639865776343,
                -0.20877785007761737,
                0.2205842626935986,
                0.5446798181782371,
                0.4882300869789843,
                -1.4368843305807848,
                0.9448568798588921,
                -0.02536591976269385,
                1.1066155437202239,
                -0.38248584394664803,
                -0.5010739722975327,
                0.10511076932403383,
                -2.498709412340564,
                0.5168290699369961,
                0.040061869066478455,
                -0.11879655359686794,
                -0.928784982967158,
                -1.0233820279200028,
                -0.9043083712852096,
                -0.5570974531638792,
                -0.7747379502314902,
                2.120360686362353,
                -0.015937743154648715,
                1.6670517319388778,
                1.1301497456096146,
                0.16253679304913843,
                2.0270639908837644,
                -0.5173265931966291,
                0.5115113106790267,
                2.104549940176173,
                1.5038094620883489,
                1.0802469649670323,
                -0.008401637734291905,
                0.494154978841417,
                -0.3162116967632493,
                1.0837814817797977,
                0.4966536187015364,
                0.2832019411167414,
                0.8212544855807749,
                -0.12663341866883726,
                0.5094368540600119,
                1.5244193749543375,
                -0.7125241148793358,
                1.5156726277128942,
                2.5607201225177385,
                -1.4123836152593294,
                -0.07614928368197495,
                0.1425279948938017,
                0.4641688184946632,
                0.8284963951602795,
                -1.8345265552540868,
                0.6006805327164182,
                -0.799364282907293,
                -1.280259999456683,
                -0.1625213593198387,
                0.9896414008368389,
                0.7716868789353508,
                -1.5493884003178757,
                2.146069302767912,
                1.1364512808774863,
                0.5774463088242003,
                0.896502843171024,
                1.2616648418672132,
                -0.47997422319215755,
                1.8126579157828033,
                0.2527970283565983,
                0.0849808373686481,
                -0.12893354274459062,
                -0.08367783768416334,
                1.5801730188849912,
                0.35342063167246945,
                0.6099553994609885,
                0.07335548470489389,
                1.4082461198633278,
                -1.5145521085807538,
                0.9917230863528076,
                -1.187457196661884,
                1.5587073491894372,
                -0.1826479156490458,
                1.094921598496393,
                -1.1984164143039409,
                0.861450220143221,
                0.17796414804419802,
                0.09719666639475717,
                -0.24272610773739747,
                -1.3564742908926146,
                -1.2893564231751602,
                0.017278439853240027,
                -0.20778285621016793,
                -1.2086008825255905,
                0.6566217035773406,
                -0.14977070445463686,
                0.1970647299305493,
                0.18675583250991137,
                0.6366095701805061,
                1.105744987040975,
                0.2862533990948773,
                0.12696301664257345,
                1.5307763770587859,
                0.08523723623717147,
                0.5781032043682687,
                2.4907832382114838e-05,
                0.16807089374756148,
                -0.5610327466012841,
                0.688909939153067,
                -0.22023106445455587,
                -0.6890428181431774,
                -0.8096365195912623,
                -0.525793419152556,
                -0.11394449038122617,
                -0.11058643548779352,
                -0.3401958259177383,
                -0.2739602170610386,
                0.052386693913707455,
                -1.2419592138045692,
                0.6203359287201886,
                -1.0604251617444218,
                0.5094073155754267,
                -0.6471617959058203,
                0.5506271529096357,
                -0.7902010070798426,
                -0.35397227140977894,
                -0.7485980377549273,
                0.571812411439212,
                0.1857421667148657,
                2.1352045578117695,
                -0.1667692868853493,
                0.7713939617294937,
                -0.017576755037400485,
                0.11794161407818196,
                -0.12915521106033243,
                0.2467195879234971,
                -0.9178021510505845,
                2.024330183410698,
                -0.16184176654780175,
                0.6225253034572316,
                -0.6250432678046367,
                0.355205238038032,
                -1.9992068020338665,
                -0.12797829025967347,
                0.31471184453413215,
                0.803484048666936,
                0.9123043932850805,
                -0.7469570143263743,
                -0.044800234824209494,
                1.7420800851388727,
                1.140983938672753,
                0.9499730734124427,
                -0.22699338881495318,
                -1.0371037580232885,
                0.5016554655230818,
                -1.1311227283381518,
                -0.1749256862741052,
                0.1958040651225638,
                0.4126358117325698,
                0.2946556676076217,
                -1.3047764245634024,
                0.8105514119158839,
                0.5197230417475117,
                -0.09490123654771959,
                -1.949430303124676,
                1.0835513040540632,
                -1.1247907231918748,
                1.6436477869929584,
                0.11293822697987577,
                1.3245205727339167,
                0.7409153131882498,
                -0.15952011732775478,
                0.38118797173050684,
                -0.5345561743660628,
                -1.0218046948990818,
                1.0472736556880993,
                -0.9952892853179286,
                -1.0507641689225728,
                1.0626095678169833,
                0.4562230622786527,
                0.7708183617997406,
                -0.5791286087381293,
                -0.020118973209740217,
                -0.8812181791144825,
                -0.46279950777749557,
                -0.8411962731557816,
                0.9768469755026141,
                0.9251711564784428,
                -1.7548497512463213,
                -1.331894049157801,
                2.2922816396501635,
                1.664814702474246,
                -1.4576650723317501,
                0.4778437081535131,
                0.006290193987748694,
                -0.33570476574422164,
                0.032109648745015956,
                -2.071449401519821,
                -0.3989783901833547,
                0.278349643506598,
                -0.5164100229041781,
                0.3134846508078689,
                0.05695992015796647,
                1.006374662771683,
                0.29005439776560465,
                0.3776076477807213,
                -1.1261858674981364,
                -0.9189910220286939,
                0.019558022214602098,
                -0.9381830743985703,
                -0.11111934594004563,
                -1.7365625533512958,
                0.2771755332332747,
                0.38925283151360146,
                0.739096447325568,
                -1.061687670610813,
                -0.21941522693105903,
                1.7051677532604972,
                -2.370736144517384,
                0.3148768887734236,
                -0.03234517598494822,
                -0.6105026900126251,
                0.8579495986096516,
                0.29224841219148057,
                -0.9353382835890373,
                0.7349718542083576,
                -0.28981593568639136,
                -0.06275191559638657,
                -0.26891333068593476,
                -1.7507529959035855,
                2.111196638551861,
                0.9431508338340221,
                -0.19692259310752772,
                -0.23996656277963666,
                1.7622923834350381,
                -0.8769135005931221,
                -1.471094212349505,
                0.5339241349068939,
                0.9757105513177912,
                -1.0660043937036623,
                -0.8279584946449345,
                -0.2671391562884639,
                -0.00023416627307616192,
                -1.907684305823453,
                -1.5301389804068166,
                1.271140380415025,
                -1.6284533810505277,
                0.3197932224553836,
                0.6872491949808951,
                0.23974034025919477,
                0.3558830673648881,
                0.28095445706873595,
                -0.7123404452997133,
                0.5711176541586038,
                0.4231745303399608,
                0.14177571749873033,
                0.8233531378183977,
                2.155030237468375,
                -1.2475078037867546,
                0.7960020051375661,
                0.0065492602551180095,
                -1.5867059965957626,
                -0.8142841308183356,
                -0.134218933469615,
                -0.7234554454257791,
                -0.0920842686784871,
                -1.016083019574805,
                1.1764200329280947,
                0.054287385452132776,
                -1.0532248975059026,
                0.35139094011041677,
                -0.7525835721610753,
                1.7473698621415628,
                -1.6224203218614144,
                0.18245571558843443,
                -1.311781104553513,
                -1.1331041995820048,
                -1.2011115234079717,
                1.321810623884666,
                -2.257505736633,
                0.6534575930726622,
                0.49618190313731547,
                0.27377397717994884,
                -0.5096337297251792,
                -0.3825468270760515,
                -0.006660526761460681,
                2.4092456754721883,
                1.4808356465336165,
                -0.5269038439605469,
                0.20327410196272938,
                -1.4712017819975054,
                0.11934182088252289,
                1.3781931956570501,
                -1.0042952444734496,
                -0.46829848347433195,
                0.006082499282243279,
                0.45103316063211196,
                -0.643666652869005,
                -0.13701856874521556,
                -0.13199398434569418,
                1.2172612001704268,
                -0.6646278948838276,
                -0.20669389718875913,
                -1.3515455153911422,
                0.563895933405575,
                -0.14945088370573975,
                1.2412274543599113,
                -0.21120038444504635,
                -1.2313771660477837,
                -1.234258970891423,
                -0.95407790775476,
                0.233368836219223,
                -0.653899010498951,
                1.3665763621219476,
                -0.40940111252573813,
                -0.4164183372251827,
                0.6207013573053223,
                0.14878519226528816,
                -0.5372284748054991,
                -0.7533257523577465,
                -1.3650729243033684,
                -0.7677573698239489,
                -0.26469810295737767,
                0.9747611429601962,
                -1.3148839497914502,
                0.8349607561455303,
                -0.4784762900704757,
                0.6352831883939105,
                0.25045583248391917,
                0.11463983936824897,
                -1.646652944461434,
                0.9022846085991648,
                1.0415692631765032,
                0.41338906915315243,
                -0.151555160600325,
                -0.06342958026975463,
                -0.8310345192513405,
                -1.467554170449056,
                -0.5443235634709336,
                0.7459921144516716,
                1.7512399605734812,
                -0.04933491423184269,
                -0.627290893548883,
                1.4260930693962368,
                -0.5462556836176714,
                -0.846184569467384,
                -0.5399151452346099,
                0.8733792686884421,
                -2.3986540153203975,
                -1.3916606435250778,
                -1.0714002883951061,
                -0.5462263393531912,
                0.8448722880409991,
                -0.26294292162412486,
                0.4662383989529959,
                1.1395061305748744,
                0.4811088350670338,
                2.3207834221133328,
                0.09394153853320773,
                0.642867008912784,
                0.03726760297747546,
                0.5240252722514589,
                1.0907888754510136,
                -0.791511164330624,
                1.406478958333751,
                0.02278337843425456,
                1.6798851399926427,
                -1.754344828788331,
                0.05934219497289012,
                -1.1379945405099134,
                0.9150842377164262,
                0.624920692627341,
                -1.6566166583383535,
                0.3593507535254468,
                -0.20413208797298132,
                -0.09017183953998359,
                1.0281881455601567,
                -0.36793715113545666,
                -1.0907619146834393,
                2.403356596597873,
                0.3084795763612647,
                0.9427432276745521,
                2.002447946228825,
                -0.6353197491758706,
                -0.9027101358951886,
                -0.28693833779320344,
                -1.1051827961860807,
                -0.034775853884690566,
                0.1358422373918613,
                -0.05923773453965412,
                1.2261663287041438,
                0.920707830434329,
                0.009059968573888749,
                -0.45084673165340855,
                -0.5606697572842916,
                0.18947939911238454,
                -1.0443571034931978,
                0.6262905447701742,
                1.5678416316792427,
                -0.749584071531735,
                -0.19922059730906203,
                -0.4605247062186768,
                -0.5129035793396459,
                0.27859906899586706,
                1.1213786314843384,
                0.13503904041894693,
                -0.2969410515804108,
                -0.14158522420610387,
                -0.8247573848987961,
                -0.5589340500290555,
                0.038082099494790404,
                0.26092660030000336,
                1.203456039097543,
                0.8214107398552843,
                -1.1927259629662206,
                0.13119388921515004,
                -0.3470207178564291,
                -0.7630745786628433,
                -0.14003425379351017,
                0.4487664597277924,
                1.2902852818114432,
                0.28692043444120696,
                0.5404059825999029,
                -1.408628644697685,
                -0.403665812786723,
                -1.1727852910011545,
                -1.3580148648149322,
                0.5925436575014407,
                0.02452087259863619,
                -0.5297220962950965,
                0.48821926634161456,
                0.45474366492541185,
                0.12339689707416042,
                -0.06595286875585166,
                1.310325841824522,
                -1.1500252876133257,
                -2.9773180023764336,
                1.7404113720493928,
                -1.6812411500733093,
                0.6323106301961987,
                -0.6356472876646201,
                -2.134734662191159,
                0.6969231280186432,
                -0.9776190645730707,
                -0.0292807601130065,
                2.4408717124307473,
                -1.2064421201459006,
                -0.8501155731158603,
                -0.16260275215561584,
                -0.4554208582396714,
                0.5647115245398775,
                1.0617810642957648,
                -0.33768912251427763,
                0.5976575335119944,
                -1.3683912086606589,
                0.05686548237834103,
                -0.7932868544254035,
                0.2388338842456203,
                -1.2597066607433276,
                -0.15548289410622645,
                -0.9568599252842744,
                -0.11100775635033923,
                1.0586934082215433,
                0.7358703527352971,
                -2.2230864225476594,
                -0.6484470110619106,
                -1.128571878671709,
                -0.669237486383522,
                1.1758185099679055,
                0.18131106998444818,
                -1.3708675791980915,
                1.0264893605500225,
                -1.1823843951753688,
                0.17077597959858223,
                0.4433180627479551,
                -0.7360729835680236,
                -0.4760469842100531,
                1.4552195041792644,
                1.7335381966099659,
                -1.109438559696549,
                -0.0758987528601005,
                -1.450125622796126,
                -0.661652003245936,
                -1.5118086520999956,
                -0.5737223884831253,
                -0.5569399345078219,
                -1.6943976044581828,
                -0.1687148214570994,
                -0.08194078937737875,
                -0.948658700608209,
                -1.7229812983001174,
                1.770768367400253,
                0.3207927386926026,
                0.7247197172936536,
                0.41293405184702914,
                -0.038915797816470164,
                2.0388623357369404,
                1.7878779765228596,
                1.6115535921033475,
                -1.043709583501198,
                -1.230740389080322,
                0.9373482980700945,
                0.49300873910193355,
                0.7046615460590245,
                -0.11221009261812961,
                -0.6683370066169829,
                -1.4906743980298767,
                1.3402517908993072,
                0.25035864031927524,
                0.29159027257667225,
                -0.2187783115498304,
                1.2045382522650883,
                0.18877179091919877,
                -0.557783082961132,
                1.82146478279212,
                2.724277913112114,
                1.1749138460254096,
                -0.17636924075431798,
                0.36487315661679826,
                0.6394574950075428,
                1.0729899621162644,
                0.6923164751130787,
                1.6746650689427327,
                -1.1243219563405678,
                0.45333461750911913,
                0.22992280710441523,
                0.450116336106356,
                0.4311436512155207,
                0.6845690466912552,
                -0.05705179565627893,
                0.07603094312287659,
                0.44110601683146616,
                0.4986594643741597,
                0.05453339391122828,
                1.153359086797086,
                -0.9641782939139786,
                0.959367988829282,
                0.948895851980889,
                0.06376683611203121,
                1.311880468405985,
                1.1232940572772039,
                0.46559860341736414,
                0.09792171806361871,
                -0.19660080065397958,
                0.3860141228444311,
                1.405569295576551,
                1.9352220190629101,
                -1.9330451607982992,
                -1.4130577892314968,
                -1.1274928528764232,
                2.5711008722972237,
                0.8245430358282074,
                0.08566194842285135,
                -1.63262405970965,
                0.5432607282758002,
                0.5553894938672761,
                -0.7328738335782958,
                -0.6527989938159099,
                -0.015422947017165513,
                0.31410150154416533,
                -0.32431723772021037,
                1.0736163458166175,
                0.11484739448394272,
                0.26182989356398084,
                0.45943834775643666,
                -0.4420704072142871,
                1.601908156627241,
                -1.065450784003158,
                -1.2771319907475585,
                0.6211604084560138,
                -1.0698278096815366,
                1.0265145380495575,
                -1.3665614198513074,
                0.35498799765839373,
                0.6737430776407379,
                -0.9881091111862194,
                0.11961167266593632,
                0.4338894135826994,
                -0.7061692863707301,
                1.6157047861241833,
                0.4197274734238691,
                0.5626086770350182,
                -1.7658256786738002,
                0.6550353459866914,
                -0.8683648893466263,
                -0.03798007061115834,
                -1.065410299583685,
                0.5439795398007298,
                -0.4337937363260366,
                -0.29306089219576703,
                -0.15422536152112065,
                0.8405434323181006,
                1.813249330023625,
                -0.2089939027553449,
                -0.5928116943209512,
                -1.8046977336402192,
                -0.26735743478830815,
                0.049775733050225,
                -0.9049019968631103,
                -1.6814140358301695,
                -2.017623926363311,
                0.8357692170222611,
                0.6086768245514983,
                -1.7545206470004022,
                1.249036337984729,
                -1.6270266666924,
                1.4395128988667552,
                0.20770178146915147,
                -0.4677145254046602,
                -0.14522310067929528,
                0.569687407043089,
                1.386712203894023,
                -1.2979990098675638,
                -0.476013181650487,
                0.43743545593327476,
                0.12387482656564393,
                -0.8496432185978134,
                1.5522504314339898,
                -0.4527273728084929,
                -0.5074365665813341,
                -0.09879305968678294,
                -1.0109028624988037,
                -0.19824887394050356,
                0.8283345662339994,
                -1.9865085775362967,
                0.12000952533801842,
                -0.8789762447043918,
                1.9338552995563196,
                -0.26386107122960756,
                -1.6616016999496508,
                0.8904903282390898,
                -1.2007503158792387,
                -1.1661899851543205,
                1.0370028396624433,
                0.210081738064944,
                -0.20235227037247064,
                1.5795306477884368,
                -0.46555375343177796,
                0.05470912162159864,
                0.7789876770463262,
                -0.5048418253344524,
                0.6034123689053825,
                1.3131871904189925,
                0.5870875603157706,
                -2.021338397212627,
                -0.2797491665126494,
                0.11203158566696439,
                0.389844536194127,
                -1.5035022469234554,
                -0.1821462252447456,
                0.49335715135189956,
                0.1403213508523053,
                0.7631619502596904,
                -1.4397150028447265,
                -0.990001858225804,
                -1.1213924460393017,
                0.33885910909198386,
                -0.222241129941365,
                -0.23749227533956946,
                -1.4646818886250956,
                0.3264303074616581,
                0.895271045757083,
                -1.5894289704614568,
                0.51291118633558,
                -0.16677381231124677
            ],
            [
                -0.4623611517659843,
                0.6203020614430188,
                0.4044599270664181,
                -1.6846122850247152,
                0.43595459194399,
                -1.8022874235328135,
                -1.6277800741464632,
                1.348638298794988,
                0.32197683080404005,
                -0.9008197423134048,
                0.8251145823280358,
                0.02918446723885251,
                -0.6980857545519521,
                0.8762350140393936,
                2.1086187564024232,
                1.0605929695677596,
                0.739905528502496,
                1.1861035680792449,
                0.9657132134866466,
                0.7462863835431887,
                1.1447662599193158,
                0.6319139506891958,
                -0.07080072696889517,
                -1.098184934039838,
                -1.1537478374948074,
                1.5324013041367162,
                0.9595562145735215,
                -0.8995738759078978,
                0.008358474081235606,
                0.5235787330149922,
                0.6934310839659663,
                -0.3670402067714904,
                -0.8773864538794718,
                -0.4565936363392819,
                0.05593082507164283,
                2.816541068404164,
                -2.1994182159812516,
                -1.914455720992977,
                -1.542912675172867,
                0.9258151297074602,
                -0.7365988745124565,
                0.30053710129233796,
                1.0533878952839608,
                0.1207543311034612,
                0.4220060648374853,
                -0.5641912128432995,
                -0.17108312637760123,
                -1.6184199706862115,
                -0.9748416552042953,
                0.683242906128759,
                0.2453065293889125,
                -0.9594372357265128,
                -1.4794315512572163,
                0.05218689308269586,
                0.24746796775150698,
                -1.264892873781917,
                -0.47991039690565107,
                0.14688256948782666,
                -0.06155867360397516,
                -0.12260921321365671,
                1.4735755930595575,
                0.79924015605872,
                -0.0741273723361939,
                -0.6207580843074083,
                0.44771550350882267,
                2.3297953324288425,
                1.6430216775893474,
                -0.4228338707166983,
                2.4476932243748615,
                -0.3425960481912719,
                -0.05986993445985283,
                0.025217593264199614,
                -0.610016230832562,
                -0.21775529057282436,
                -0.8090335130409342,
                0.43410247191968254,
                -1.2245207620927556,
                -0.3022163621882243,
                -0.7135185337541754,
                -0.9913377885085665,
                -0.4258389707161117,
                1.55391803738775,
                1.0978305125980679,
                0.13589166998107152,
                -0.10927840305453805,
                0.40808044043071484,
                -0.1728990916119999,
                -0.9753095556146233,
                -0.6517063079908174,
                -0.34725462225537324,
                0.9026752412396635,
                -0.3317275514419837,
                -0.5601202999957512,
                0.21086408608580917,
                0.03561575407121451,
                1.7864853173880315,
                0.026119670994875995,
                -1.0841035905307657,
                1.1550268950878593,
                -0.13012641505657427,
                -0.30431704831426737,
                0.13506687614023785,
                0.7010193270352849,
                -0.6691508456937275,
                -0.25182245602724906,
                1.016162050462516,
                -1.8111878413264981,
                -1.6812638785010192,
                2.467624134485996,
                0.7914000418160739,
                -1.022197651091696,
                -0.8439454459149821,
                0.7480584854493677,
                -0.2369822932773549,
                -1.2807944430001372,
                -0.15329867517040768,
                1.2262819602894974,
                -0.4633133264187518,
                0.5769773442028894,
                -0.7757498394770274,
                0.7823668130718758,
                -1.367808809638995,
                0.7309696209709204,
                -0.3778944226553517,
                0.5217182808472061,
                1.957886890753509,
                -1.6956853659800453,
                0.8648462920483799,
                0.12571747700652097,
                -1.9585850822021944,
                -0.5413791987796883,
                1.283015207242123,
                0.840354901740956,
                -0.7243878046872441,
                2.4668629545218397,
                -1.3525292421219008,
                -0.2844128062842845,
                1.0265925780091354,
                -1.4538541034206807,
                -1.4112609282532798,
                0.2781928775111192,
                -0.7411425471816114,
                0.7851486464291623,
                0.8367732289455112,
                1.056794205605992,
                0.21359808040096592,
                -0.3551391315936943,
                1.3114163266491976,
                0.6444457743421527,
                0.5229995258863294,
                1.4601592545160793,
                1.3016893334665456,
                0.09185018998908662,
                -0.5225090921066868,
                -0.7615013270184534,
                0.40100944908139086,
                1.7768545555163089,
                -1.5348410430826696,
                -0.44282592756211736,
                -0.14846093436242314,
                -1.0391303406360606,
                -0.8610538193252469,
                -2.0686681622736227,
                -0.06969360216971393,
                0.7586300084464548,
                0.1275367588667219,
                -0.47357912308729266,
                0.2142049135261622,
                0.2649768854830395,
                -0.8517103712330333,
                0.6068540848524325,
                0.250819233042593,
                0.00895547396589037,
                0.046715260876808225,
                0.5271252754763993,
                0.7469252619832694,
                -0.00035649946907802943,
                0.4901616394600614,
                -1.1049694464749367,
                -0.7571252075433842,
                -1.6144635896264152,
                0.06257405815358809,
                -0.4735043428201396,
                -0.8872009060570462,
                -1.9087846436624667,
                0.05928570977893636,
                -0.5579399154636692,
                -0.7301818120491518,
                0.4570467966318665,
                -0.44557187167841317,
                0.5057100115188278,
                -0.9722413800169222,
                1.0182157212695757,
                -1.2875429206205797,
                1.0852551847496599,
                -1.929653161882305,
                -1.3170922481341556,
                -0.9228093735737424,
                -0.19707898225784384,
                -0.2826931108550403,
                -1.0898662490142714,
                0.7761168337592318,
                0.9278995431704199,
                -0.2512884784296279,
                0.5143672061347047,
                0.4516867490814777,
                0.08498528823407576,
                1.1460701113312841,
                -2.7010069505145053,
                -1.0192700357774045,
                -1.0066291795594604,
                -1.4370380909725984,
                -2.3652553588505185,
                -0.6973979588201277,
                -1.9284500018906452,
                -1.6000731157955608,
                -0.30179392996240834,
                -0.35621713764636387,
                0.7348668553984748,
                0.4646928367375631,
                -0.38461878557974,
                0.18587863984152708,
                -0.5305662057872588,
                2.1387262536274614,
                -0.6636012960868986,
                -0.16230378652291802,
                0.8178154285399751,
                -1.675236306988399,
                2.0281521663496265,
                0.14729923541527978,
                -0.7554483564352349,
                -0.864823486660924,
                0.15820231452727204,
                -0.7979954505945268,
                -1.7452459564017122,
                0.8633551334542925,
                -1.7829516458234616,
                -0.9642800492386367,
                -2.554131475622133,
                -2.2464115881586095,
                -2.528918872707405,
                -1.0274538395428834,
                -0.1688281128691255,
                -0.8048568016994115,
                -0.15828587728813737,
                -1.7595885036176206,
                0.6665421012942158,
                -0.42956286286980505,
                -0.1722022850070368,
                0.16606700101757538,
                0.33522348248505063,
                -1.4689396601158555,
                -0.7238934716790514,
                0.8311353005602825,
                -0.3626721712406498,
                -0.23463624693053503,
                -2.3479179344249244,
                0.2300963634147509,
                -1.661939958188325,
                -0.4338172374400421,
                0.5438571536453644,
                1.9604893621005495,
                0.25890253751552433,
                -0.94648880300041,
                0.05407595087750743,
                -1.4329760260898596,
                -1.6528157270958235,
                -0.8194674754985272,
                0.3498769152801174,
                0.5245575994625056,
                -0.9196908251961171,
                0.43463379942455516,
                0.537240316824594,
                0.734990861502703,
                0.0392506854495914,
                1.3832669372486863,
                1.0195749594468446,
                0.3455772281970153,
                -0.3490670324835494,
                -0.30664946315283664,
                1.1256337891673074,
                -0.1784719555572395,
                0.7729092888181136,
                -0.16724878377369884,
                -1.0857741015303801,
                0.3660484163015424,
                -0.3486678812055221,
                -1.922616866300009,
                -0.5984120022488862,
                -1.2327162492341435,
                -1.7341677573667211,
                0.9069561977195709,
                -0.151069931617596,
                0.9045229399771141,
                -2.21160061082269,
                0.9775449775359303,
                -0.4396853109602283,
                -1.022557826904095,
                0.11815322994455323,
                0.5106783110019938,
